<?xml version="1.0"?>
<opencv_storage>
<cascade>
  <stageType>BOOST</stageType>
  <featureType>HAAR</featureType>
  <height>28</height>
  <width>28</width>
  <stageParams>
    <boostType>GAB</boostType>
    <minHitRate>9.9500000476837158e-01</minHitRate>
    <maxFalseAlarm>5.0000000000000000e-01</maxFalseAlarm>
    <weightTrimRate>9.4999999999999996e-01</weightTrimRate>
    <maxDepth>1</maxDepth>
    <maxWeakCount>100</maxWeakCount></stageParams>
  <featureParams>
    <maxCatCount>0</maxCatCount>
    <featSize>1</featSize>
    <mode>ALL</mode></featureParams>
  <stageNum>8</stageNum>
  <stages>
    <!-- stage 0 -->
    <_>
      <maxWeakCount>3</maxWeakCount>
      <stageThreshold>-1.1969196796417236e+00</stageThreshold>
      <weakClassifiers>
        <_>
          <internalNodes>
            0 -1 8 3.3596718311309814e-01</internalNodes>
          <leafValues>
            -9.8315465450286865e-01 7.2222220897674561e-01</leafValues></_>
        <_>
          <internalNodes>
            0 -1 10 -8.3967559039592743e-02</internalNodes>
          <leafValues>
            7.8813189268112183e-01 -9.1310727596282959e-01</leafValues></_>
        <_>
          <internalNodes>
            0 -1 19 3.7366227479651570e-04</internalNodes>
          <leafValues>
            -9.1986662149429321e-01 6.9934231042861938e-01</leafValues></_></weakClassifiers></_>
    <!-- stage 1 -->
    <_>
      <maxWeakCount>4</maxWeakCount>
      <stageThreshold>-2.1394085884094238e+00</stageThreshold>
      <weakClassifiers>
        <_>
          <internalNodes>
            0 -1 25 -1.2605658173561096e-01</internalNodes>
          <leafValues>
            6.6666668653488159e-01 -9.8162329196929932e-01</leafValues></_>
        <_>
          <internalNodes>
            0 -1 11 -8.7747320532798767e-02</internalNodes>
          <leafValues>
            6.8282634019851685e-01 -9.0131324529647827e-01</leafValues></_>
        <_>
          <internalNodes>
            0 -1 6 -1.8841078877449036e-01</internalNodes>
          <leafValues>
            6.5518170595169067e-01 -8.0404782295227051e-01</leafValues></_>
        <_>
          <internalNodes>
            0 -1 28 4.5869722962379456e-03</internalNodes>
          <leafValues>
            -9.0193212032318115e-01 5.4757589101791382e-01</leafValues></_></weakClassifiers></_>
    <!-- stage 2 -->
    <_>
      <maxWeakCount>4</maxWeakCount>
      <stageThreshold>-2.0703139305114746e+00</stageThreshold>
      <weakClassifiers>
        <_>
          <internalNodes>
            0 -1 16 1.1569169163703918e-01</internalNodes>
          <leafValues>
            -9.8459166288375854e-01 4.5454546809196472e-01</leafValues></_>
        <_>
          <internalNodes>
            0 -1 4 -6.0087405145168304e-02</internalNodes>
          <leafValues>
            2.8358358144760132e-01 -9.2127662897109985e-01</leafValues></_>
        <_>
          <internalNodes>
            0 -1 14 -1.1469498276710510e-02</internalNodes>
          <leafValues>
            4.7548243403434753e-01 -8.0122101306915283e-01</leafValues></_>
        <_>
          <internalNodes>
            0 -1 12 3.6689218878746033e-01</internalNodes>
          <leafValues>
            -6.3992804288864136e-01 8.3266657590866089e-01</leafValues></_></weakClassifiers></_>
    <!-- stage 3 -->
    <_>
      <maxWeakCount>4</maxWeakCount>
      <stageThreshold>-2.1486945152282715e+00</stageThreshold>
      <weakClassifiers>
        <_>
          <internalNodes>
            0 -1 15 -8.9255601167678833e-02</internalNodes>
          <leafValues>
            1.6666667163372040e-01 -9.7836166620254517e-01</leafValues></_>
        <_>
          <internalNodes>
            0 -1 13 -3.1428385525941849e-02</internalNodes>
          <leafValues>
            1.9947471097111702e-02 -9.3362897634506226e-01</leafValues></_>
        <_>
          <internalNodes>
            0 -1 17 -4.1752764955163002e-03</internalNodes>
          <leafValues>
            2.4935677647590637e-01 -8.5454922914505005e-01</leafValues></_>
        <_>
          <internalNodes>
            0 -1 9 1.3552345335483551e-02</internalNodes>
          <leafValues>
            -4.8606064915657043e-01 9.1623175144195557e-01</leafValues></_></weakClassifiers></_>
    <!-- stage 4 -->
    <_>
      <maxWeakCount>4</maxWeakCount>
      <stageThreshold>-1.8564430475234985e+00</stageThreshold>
      <weakClassifiers>
        <_>
          <internalNodes>
            0 -1 26 -1.0743762552738190e-01</internalNodes>
          <leafValues>
            3.1578946113586426e-01 -9.7392636537551880e-01</leafValues></_>
        <_>
          <internalNodes>
            0 -1 0 -1.1180721223354340e-01</internalNodes>
          <leafValues>
            4.3963855504989624e-01 -8.8692694902420044e-01</leafValues></_>
        <_>
          <internalNodes>
            0 -1 3 -9.2267856001853943e-02</internalNodes>
          <leafValues>
            9.0038669109344482e-01 -6.0304546356201172e-01</leafValues></_>
        <_>
          <internalNodes>
            0 -1 21 1.6682475805282593e-02</internalNodes>
          <leafValues>
            -8.5373562574386597e-01 6.0745579004287720e-01</leafValues></_></weakClassifiers></_>
    <!-- stage 5 -->
    <_>
      <maxWeakCount>4</maxWeakCount>
      <stageThreshold>-2.2689707279205322e+00</stageThreshold>
      <weakClassifiers>
        <_>
          <internalNodes>
            0 -1 7 -8.9473336935043335e-02</internalNodes>
          <leafValues>
            9.0909093618392944e-02 -9.6333080530166626e-01</leafValues></_>
        <_>
          <internalNodes>
            0 -1 5 -1.1649122834205627e-01</internalNodes>
          <leafValues>
            1.7196977138519287e-01 -8.9422762393951416e-01</leafValues></_>
        <_>
          <internalNodes>
            0 -1 24 -2.8272345662117004e-03</internalNodes>
          <leafValues>
            3.9771494269371033e-01 -6.9936966896057129e-01</leafValues></_>
        <_>
          <internalNodes>
            0 -1 22 9.4704897492192686e-05</internalNodes>
          <leafValues>
            -9.2789727449417114e-01 2.8795745968818665e-01</leafValues></_></weakClassifiers></_>
    <!-- stage 6 -->
    <_>
      <maxWeakCount>4</maxWeakCount>
      <stageThreshold>-2.3459770679473877e+00</stageThreshold>
      <weakClassifiers>
        <_>
          <internalNodes>
            0 -1 23 -7.8882038593292236e-02</internalNodes>
          <leafValues>
            -1.1111111193895340e-01 -9.7204971313476562e-01</leafValues></_>
        <_>
          <internalNodes>
            0 -1 2 -9.9899291992187500e-02</internalNodes>
          <leafValues>
            3.3606487512588501e-01 -8.6199975013732910e-01</leafValues></_>
        <_>
          <internalNodes>
            0 -1 29 6.8023731000721455e-03</internalNodes>
          <leafValues>
            -7.6646333932876587e-01 3.5412195324897766e-01</leafValues></_>
        <_>
          <internalNodes>
            0 -1 20 1.0423687053844333e-03</internalNodes>
          <leafValues>
            2.5453576445579529e-01 -9.5819783210754395e-01</leafValues></_></weakClassifiers></_>
    <!-- stage 7 -->
    <_>
      <maxWeakCount>4</maxWeakCount>
      <stageThreshold>-2.3426635265350342e+00</stageThreshold>
      <weakClassifiers>
        <_>
          <internalNodes>
            0 -1 18 7.5123287737369537e-02</internalNodes>
          <leafValues>
            -9.7786563634872437e-01 -2.7272728085517883e-01</leafValues></_>
        <_>
          <internalNodes>
            0 -1 1 -1.2695211172103882e-01</internalNodes>
          <leafValues>
            1.6609317064285278e-01 -8.8441240787506104e-01</leafValues></_>
        <_>
          <internalNodes>
            0 -1 29 6.7861536517739296e-03</internalNodes>
          <leafValues>
            -7.9527968168258667e-01 3.4104874730110168e-01</leafValues></_>
        <_>
          <internalNodes>
            0 -1 27 -1.0298050008714199e-02</internalNodes>
          <leafValues>
            3.2460182905197144e-01 -8.2143425941467285e-01</leafValues></_></weakClassifiers></_></stages>
  <features>
    <_>
      <rects>
        <_>
          0 6 12 13 -1.</_>
        <_>
          3 6 6 13 2.</_></rects>
      <tilted>0</tilted></_>
    <_>
      <rects>
        <_>
          0 6 8 19 -1.</_>
        <_>
          4 6 4 19 2.</_></rects>
      <tilted>0</tilted></_>
    <_>
      <rects>
        <_>
          0 8 12 9 -1.</_>
        <_>
          3 8 6 9 2.</_></rects>
      <tilted>0</tilted></_>
    <_>
      <rects>
        <_>
          1 3 16 12 -1.</_>
        <_>
          1 3 8 6 2.</_>
        <_>
          9 9 8 6 2.</_></rects>
      <tilted>0</tilted></_>
    <_>
      <rects>
        <_>
          1 17 14 8 -1.</_>
        <_>
          1 17 7 4 2.</_>
        <_>
          8 21 7 4 2.</_></rects>
      <tilted>0</tilted></_>
    <_>
      <rects>
        <_>
          3 0 5 28 -1.</_>
        <_>
          3 7 5 14 2.</_></rects>
      <tilted>0</tilted></_>
    <_>
      <rects>
        <_>
          4 7 15 12 -1.</_>
        <_>
          9 11 5 4 9.</_></rects>
      <tilted>0</tilted></_>
    <_>
      <rects>
        <_>
          6 2 8 5 -1.</_>
        <_>
          8 4 4 5 2.</_></rects>
      <tilted>1</tilted></_>
    <_>
      <rects>
        <_>
          6 9 15 15 -1.</_>
        <_>
          11 14 5 5 9.</_></rects>
      <tilted>0</tilted></_>
    <_>
      <rects>
        <_>
          6 20 4 3 -1.</_>
        <_>
          5 21 4 1 3.</_></rects>
      <tilted>1</tilted></_>
    <_>
      <rects>
        <_>
          8 11 9 8 -1.</_>
        <_>
          6 13 9 4 2.</_></rects>
      <tilted>1</tilted></_>
    <_>
      <rects>
        <_>
          9 0 8 8 -1.</_>
        <_>
          11 2 4 8 2.</_></rects>
      <tilted>1</tilted></_>
    <_>
      <rects>
        <_>
          10 3 18 12 -1.</_>
        <_>
          16 7 6 4 9.</_></rects>
      <tilted>0</tilted></_>
    <_>
      <rects>
        <_>
          10 17 6 6 -1.</_>
        <_>
          10 20 6 3 2.</_></rects>
      <tilted>0</tilted></_>
    <_>
      <rects>
        <_>
          12 3 4 7 -1.</_>
        <_>
          13 4 2 7 2.</_></rects>
      <tilted>1</tilted></_>
    <_>
      <rects>
        <_>
          12 11 4 12 -1.</_>
        <_>
          9 14 4 6 2.</_></rects>
      <tilted>1</tilted></_>
    <_>
      <rects>
        <_>
          12 13 12 14 -1.</_>
        <_>
          12 13 6 7 2.</_>
        <_>
          18 20 6 7 2.</_></rects>
      <tilted>0</tilted></_>
    <_>
      <rects>
        <_>
          13 1 3 3 -1.</_>
        <_>
          14 2 1 3 3.</_></rects>
      <tilted>1</tilted></_>
    <_>
      <rects>
        <_>
          14 7 8 8 -1.</_>
        <_>
          12 9 8 4 2.</_></rects>
      <tilted>1</tilted></_>
    <_>
      <rects>
        <_>
          14 8 2 1 -1.</_>
        <_>
          15 8 1 1 2.</_></rects>
      <tilted>0</tilted></_>
    <_>
      <rects>
        <_>
          14 12 3 4 -1.</_>
        <_>
          13 13 3 2 2.</_></rects>
      <tilted>1</tilted></_>
    <_>
      <rects>
        <_>
          15 15 6 3 -1.</_>
        <_>
          15 15 3 3 2.</_></rects>
      <tilted>1</tilted></_>
    <_>
      <rects>
        <_>
          16 8 2 3 -1.</_>
        <_>
          16 9 2 1 3.</_></rects>
      <tilted>0</tilted></_>
    <_>
      <rects>
        <_>
          16 14 12 8 -1.</_>
        <_>
          19 14 6 8 2.</_></rects>
      <tilted>0</tilted></_>
    <_>
      <rects>
        <_>
          17 9 1 3 -1.</_>
        <_>
          16 10 1 1 3.</_></rects>
      <tilted>1</tilted></_>
    <_>
      <rects>
        <_>
          18 13 9 6 -1.</_>
        <_>
          21 16 3 6 3.</_></rects>
      <tilted>1</tilted></_>
    <_>
      <rects>
        <_>
          18 14 9 4 -1.</_>
        <_>
          21 17 3 4 3.</_></rects>
      <tilted>1</tilted></_>
    <_>
      <rects>
        <_>
          19 7 9 8 -1.</_>
        <_>
          17 9 9 4 2.</_></rects>
      <tilted>1</tilted></_>
    <_>
      <rects>
        <_>
          19 9 6 6 -1.</_>
        <_>
          19 9 3 3 2.</_>
        <_>
          22 12 3 3 2.</_></rects>
      <tilted>0</tilted></_>
    <_>
      <rects>
        <_>
          23 10 5 6 -1.</_>
        <_>
          23 12 5 2 3.</_></rects>
      <tilted>0</tilted></_></features></cascade>
</opencv_storage>
